digraph Tree {
node [shape=box, style="filled, rounded", color="black", fontname="helvetica"] ;
edge [fontname="helvetica"] ;
0 [label="petal width (cm) <= -0.092\ngini = 0.5\nsamples = 100\nvalue = [50, 50]\nclass = setosa", fillcolor="#ffffff"] ;
1 [label="petal length (cm) <= 1.195\ngini = 0.071\nsamples = 27\nvalue = [1, 26]\nclass = versicolor", fillcolor="#41a1e6"] ;
0 -> 1 [labeldistance=2.5, labelangle=45, headlabel="True"] ;
2 [label="gini = 0.0\nsamples = 19\nvalue = [0, 19]\nclass = versicolor", fillcolor="#399de5"] ;
1 -> 2 ;
3 [label="petal width (cm) <= -0.43\ngini = 0.219\nsamples = 8\nvalue = [1, 7]\nclass = versicolor", fillcolor="#55abe9"] ;
1 -> 3 ;
4 [label="gini = 0.0\nsamples = 1\nvalue = [1, 0]\nclass = setosa", fillcolor="#e58139"] ;
3 -> 4 ;
5 [label="gini = 0.0\nsamples = 7\nvalue = [0, 7]\nclass = versicolor", fillcolor="#399de5"] ;
3 -> 5 ;
6 [label="petal length (cm) <= 1.36\ngini = 0.441\nsamples = 73\nvalue = [49, 24]\nclass = setosa", fillcolor="#f2bf9a"] ;
0 -> 6 [labeldistance=2.5, labelangle=-45, headlabel="False"] ;
7 [label="petal length (cm) <= -0.379\ngini = 0.316\nsamples = 61\nvalue = [49, 12]\nclass = setosa", fillcolor="#eba069"] ;
6 -> 7 ;
8 [label="gini = 0.0\nsamples = 22\nvalue = [22, 0]\nclass = setosa", fillcolor="#e58139"] ;
7 -> 8 ;
9 [label="petal length (cm) <= 0.466\ngini = 0.426\nsamples = 39\nvalue = [27, 12]\nclass = setosa", fillcolor="#f1b991"] ;
7 -> 9 ;
10 [label="petal width (cm) <= 0.769\ngini = 0.5\nsamples = 20\nvalue = [10, 10]\nclass = setosa", fillcolor="#ffffff"] ;
9 -> 10 ;
11 [label="gini = 0.0\nsamples = 9\nvalue = [0, 9]\nclass = versicolor", fillcolor="#399de5"] ;
10 -> 11 ;
12 [label="petal length (cm) <= -0.163\ngini = 0.165\nsamples = 11\nvalue = [10, 1]\nclass = setosa", fillcolor="#e88e4d"] ;
10 -> 12 ;
13 [label="petal length (cm) <= -0.191\ngini = 0.375\nsamples = 4\nvalue = [3, 1]\nclass = setosa", fillcolor="#eeab7b"] ;
12 -> 13 ;
14 [label="gini = 0.0\nsamples = 3\nvalue = [3, 0]\nclass = setosa", fillcolor="#e58139"] ;
13 -> 14 ;
15 [label="gini = 0.0\nsamples = 1\nvalue = [0, 1]\nclass = versicolor", fillcolor="#399de5"] ;
13 -> 15 ;
16 [label="gini = 0.0\nsamples = 7\nvalue = [7, 0]\nclass = setosa", fillcolor="#e58139"] ;
12 -> 16 ;
17 [label="petal width (cm) <= 0.054\ngini = 0.188\nsamples = 19\nvalue = [17, 2]\nclass = setosa", fillcolor="#e89050"] ;
9 -> 17 ;
18 [label="gini = 0.0\nsamples = 1\nvalue = [0, 1]\nclass = versicolor", fillcolor="#399de5"] ;
17 -> 18 ;
19 [label="petal length (cm) <= 0.639\ngini = 0.105\nsamples = 18\nvalue = [17, 1]\nclass = setosa", fillcolor="#e78845"] ;
17 -> 19 ;
20 [label="gini = 0.0\nsamples = 9\nvalue = [9, 0]\nclass = setosa", fillcolor="#e58139"] ;
19 -> 20 ;
21 [label="petal length (cm) <= 0.701\ngini = 0.198\nsamples = 9\nvalue = [8, 1]\nclass = setosa", fillcolor="#e89152"] ;
19 -> 21 ;
22 [label="gini = 0.0\nsamples = 1\nvalue = [0, 1]\nclass = versicolor", fillcolor="#399de5"] ;
21 -> 22 ;
23 [label="gini = 0.0\nsamples = 8\nvalue = [8, 0]\nclass = setosa", fillcolor="#e58139"] ;
21 -> 23 ;
24 [label="gini = 0.0\nsamples = 12\nvalue = [0, 12]\nclass = versicolor", fillcolor="#399de5"] ;
6 -> 24 ;
}